<?xml version="1.0"?>
<opencv_storage>
<cascade>
  <stageType>BOOST</stageType>
  <featureType>HAAR</featureType>
  <height>20</height>
  <width>20</width>
  <stageParams>
    <boostType>GAB</boostType>
    <minHitRate>9.9500000476837158e-01</minHitRate>
    <maxFalseAlarm>5.0000000000000000e-01</maxFalseAlarm>
    <weightTrimRate>9.4999999999999996e-01</weightTrimRate>
    <maxDepth>1</maxDepth>
    <maxWeakCount>100</maxWeakCount></stageParams>
  <featureParams>
    <maxCatCount>0</maxCatCount>
    <featSize>1</featSize>
    <mode>BASIC</mode></featureParams>
  <stageNum>4</stageNum>
  <stages>
    <!-- stage 0 -->
    <_>
      <maxWeakCount>1</maxWeakCount>
      <stageThreshold>9.3900483846664429e-01</stageThreshold>
      <weakClassifiers>
        <_>
          <internalNodes>
            0 -1 1 -6.2528669834136963e-02</internalNodes>
          <leafValues>
            9.3900483846664429e-01 -9.8601400852203369e-01</leafValues></_></weakClassifiers></_>
    <!-- stage 1 -->
    <_>
      <maxWeakCount>2</maxWeakCount>
      <stageThreshold>-9.1007925570011139e-02</stageThreshold>
      <weakClassifiers>
        <_>
          <internalNodes>
            0 -1 7 2.1566331386566162e-02</internalNodes>
          <leafValues>
            -9.3617022037506104e-01 9.0430623292922974e-01</leafValues></_>
        <_>
          <internalNodes>
            0 -1 2 -9.5417782664299011e-02</internalNodes>
          <leafValues>
            8.4516227245330811e-01 -9.0345638990402222e-01</leafValues></_></weakClassifiers></_>
    <!-- stage 2 -->
    <_>
      <maxWeakCount>3</maxWeakCount>
      <stageThreshold>5.5720591545104980e-01</stageThreshold>
      <weakClassifiers>
        <_>
          <internalNodes>
            0 -1 8 4.4212918728590012e-03</internalNodes>
          <leafValues>
            -9.1561180353164673e-01 7.7380955219268799e-01</leafValues></_>
        <_>
          <internalNodes>
            0 -1 3 -1.8221378326416016e-02</internalNodes>
          <leafValues>
            6.7250645160675049e-01 -9.4560909271240234e-01</leafValues></_>
        <_>
          <internalNodes>
            0 -1 0 3.6264456808567047e-02</internalNodes>
          <leafValues>
            -7.3863238096237183e-01 8.0031132698059082e-01</leafValues></_></weakClassifiers></_>
    <!-- stage 3 -->
    <_>
      <maxWeakCount>3</maxWeakCount>
      <stageThreshold>-6.7258906364440918e-01</stageThreshold>
      <weakClassifiers>
        <_>
          <internalNodes>
            0 -1 6 -8.2037989050149918e-03</internalNodes>
          <leafValues>
            8.1558030843734741e-01 -7.5000000000000000e-01</leafValues></_>
        <_>
          <internalNodes>
            0 -1 5 6.7832078784704208e-03</internalNodes>
          <leafValues>
            -6.4716064929962158e-01 7.1981251239776611e-01</leafValues></_>
        <_>
          <internalNodes>
            0 -1 4 2.0145243033766747e-02</internalNodes>
          <leafValues>
            -6.4240157604217529e-01 7.5017714500427246e-01</leafValues></_></weakClassifiers></_></stages>
  <features>
    <_>
      <rects>
        <_>
          0 4 4 14 -1.</_>
        <_>
          2 4 2 14 2.</_></rects>
      <tilted>0</tilted></_>
    <_>
      <rects>
        <_>
          2 8 8 6 -1.</_>
        <_>
          6 8 4 6 2.</_></rects>
      <tilted>0</tilted></_>
    <_>
      <rects>
        <_>
          4 3 12 8 -1.</_>
        <_>
          4 7 12 4 2.</_></rects>
      <tilted>0</tilted></_>
    <_>
      <rects>
        <_>
          5 5 2 12 -1.</_>
        <_>
          5 9 2 4 3.</_></rects>
      <tilted>0</tilted></_>
    <_>
      <rects>
        <_>
          6 0 10 4 -1.</_>
        <_>
          6 2 10 2 2.</_></rects>
      <tilted>0</tilted></_>
    <_>
      <rects>
        <_>
          7 14 2 6 -1.</_>
        <_>
          7 16 2 2 3.</_></rects>
      <tilted>0</tilted></_>
    <_>
      <rects>
        <_>
          10 3 2 4 -1.</_>
        <_>
          10 5 2 2 2.</_></rects>
      <tilted>0</tilted></_>
    <_>
      <rects>
        <_>
          12 7 6 3 -1.</_>
        <_>
          15 7 3 3 2.</_></rects>
      <tilted>0</tilted></_>
    <_>
      <rects>
        <_>
          14 9 4 1 -1.</_>
        <_>
          16 9 2 1 2.</_></rects>
      <tilted>0</tilted></_></features></cascade>
</opencv_storage>
